#include "layers.h"

// Auto-generated from quantized weights model
// See end of map declaration to find max map size
const static mult_t biasPW[25][64] = {

/* idx: 1, shape: (32,) */
    { 2954, -703, 1266, 2204, 1157, 1762, -662, 3042, 1074, -2442, -938, -1389, 2079, 522, 1619, 103, -883, 559, -600, -1736, -149, -693, 617, 411, 1586, -96, 330, 249, 394, -152, 1246, -2884},

/* idx: 2, shape: (8,) */
    { 11630, 1686, 3980, 3465, 1814, 8510, 5686, 13546},

/* idx: 3, shape: (32,) */
    { 8276,  8, -3519, -3361, 4686, -3967, -37, 3123, 1426, 2959, -4563, 2495, 762, 2521, -2780, 2769, -707, -727, -1578, 4739, 2888, -2167, 1402, -1600, 1859, -5563, -252, 1402, -1780, 1918, -334, -37},

/* idx: 4, shape: (8,) */
    { 6181, 3444, 2301, 1880, 3628, 5418, 1365, 3978},

/* idx: 5, shape: (32,) */
    { -126, 5851, 2108, 3086, 3431, -6484, -28, -19, 3241, 3000, -1571, -1636, 1033, -2086, -5176, -6552, 2608, 1202, -2151, 1969, -4354, -1663, 3138, -1168, -525, -6133, -1269, 4811, -592, -1777, -3547, 1161},

/* idx: 6, shape: (8,) */
    { 73, 118, 929, 2855, 1410, -223, 238, 1044},

/* idx: 7, shape: (32,) */
    { -5627, 3447, -241, 4355, -454, -3836, -2865, 1338, 1830, 1268, 1013, 3203, 1634, 3481, 5243, 1404, -1049, -394, 322, 431, -938, -1776, 2947, -2273, -1876, -2895, 1674, 815, -767, 3719, 7636, 2019},

/* idx: 8, shape: (8,) */
    { 6340, 4963, 4338, 3688, 2731, 7521, 6515, 83},

/* idx: 9, shape: (32,) */
    { -1820, -1784, -232, 1130, -1854, -2393, 41, 678, 2802, 378, 812, 731, 2311, 1828, -1514, -471, 633, -397, -627, -2577, 2173, 2980, 672, -3382, -2627, -645,  0, 2313, -2721, -3504, 114, -1358},

/* idx: 10, shape: (8,) */
    { -103, -397, 1492, -714, -81, -208, 1248, 999},

/* idx: 11, shape: (64,) */
    {  0, 1114, 1876,  0, -571, 534,  0,  0,  0, 2566, 6377,  0, -633, -1147,  0,  0,  0,  0,  0,  0,  0,  0,  8,  0, 848,  0, 3571, -1227,  0, 2348, -1834,  0,  0, 1037, 2971, 1390,  0,  0,  0,  0,  0,  0, -58, 3126,  0, -2653,  0,  0, -1735,  0, -913, -2668,  0,  0,  0,  0,  0, -1310,  0,  0,  0,  0,  0, -59},

/* idx: 12, shape: (16,) */
    { 1158, -667, 534, 4300, 2823, 1582,  0, -1008, -679,  0, 613, 1542, -975, 1008, 1465, 1150},

/* idx: 13, shape: (64,) */
    {  0, -2207,  0,  0,  0,  0,  0, 207,  0,  0,  0,  0,  0, -145,  0,  0,  0, 1907,  0,  0,  0, -6176,  0,  0, -1924,  0, 768, 451, 1708,  0, 281,  0,  0,  0,  0,  0,  0, -5,  0, -4736,  0,  0, 4026, 1367,  0,  0,  0, -2199,  0, 2208,  0,  0, 39,  0,  0, 2284,  0, -1333,  0,  0,  0,  0,  0, 3003},

/* idx: 14, shape: (16,) */
    { 2636, 1093, 1782, -97,  0, 1085, 1387,  0, -968,  0, 5107, 1630, 2151, 217, -147, 1283},

/* idx: 15, shape: (64,) */
    {  0, -715,  0,  0,  0,  0, 2617,  0,  0, -6293,  0,  0, 9307,  0,  0,  0,  0,  0,  0,  0,  0,  0,  0,  0,  0,  0,  0,  0,  0,  0,  0, 9102,  0,  0,  0,  0,  0,  0,  0,  0,  0,  0, 7413,  0,  0, 6466,  0, 11933,  0,  0, -4334, 8972,  0, 1520,  4,  0,  0,  0,  0,  0,  0,  0,  0,  0},

/* idx: 16, shape: (16,) */
    { -1236, 642, -1316, 850, -222, -233,  0,  0, 286,  0,  0, -1580,  0,  0,  0,  0},

/* idx: 17, shape: (64,) */
    { -4530,  0,  0,  0,  0, -2029,  0,  0,  0,  0,  0,  0,  0,  0,  0,  0,  0, -2012,  0,  0,  0,  0,  0,  0,  0,  0,  0,  0,  0,  0,  0, 6740, 2700, -3247,  0,  0,  0,  0,  0,  0, 2783,  0,  0,  0, -5750,  0,  0,  0,  0,  0,  0,  0, 2151, -4325, -2719, -3922, 4110,  0,  0, 483,  0,  0,  0,  0},

/* idx: 18, shape: (16,) */
    { 962,  0, -958, -297,  0, 1080,  0,  0,  0, 141, 2115, -1102, -161,  0,  0, -543},

/* idx: 19, shape: (64,) */
    { -1847, -1553, -1355,  0, 441, -1061, 396, 2200, 892,  0, 1414,  0,  0, 1475, 323, 885, -1331, 3347, -1255, 260, 1929, -574, -337, -1080, -1960, -1143, -1088,  0, 881, 38, -228, 1927,  0, 1999, -1031, 46,  0, -411, -584, -352, -935, -1015, 1288, 2457, -780,  0, 434, 22, 1026, 113, 421, -1505, -699, -24, -308, 142, -2662,  0, 980, -1213, -136, 370, -42, -616},

/* idx: 20, shape: (16,) */
    { 2071, -471, 1036, 1558, 797, -270, 1027, 3523, 1380, -408, 2992, 1168, 958, 914, 2162, -8},

/* idx: 21, shape: (32,) */
    { -133, -232, 185, -740, -2526, 1958, -229, 179, 356, 50, 149, -100, -547, 859, -967, 1004, 310, 944, 347, -1620, 1104, -1232, -1873, 850, 182, -23, -511, -154, 95, 1819, 1405, -577},

/* idx: 22, shape: (8,) */
    { -988, 4120, -2431, 2134, -1201, -256, 2951, 2262},

/* idx: 23, shape: (32,) */
    { 244, 3473, 1898, -1296,  0,  0, -192, -144, -1094, 916, -882, 349, -1717, -2205, 2568, -1, 387, 1357,  0,  0, -3260, 1574, -1783, -58, -696, -867, -527, -71,  0, -2783, -2207, -253},

/* idx: 24, shape: (8,) */
    { 2911, 1919, -1013, 3378, 1717, -1053, -1072, -426},

/* idx: 25, shape: (1,) */
    { -2805},
};
// [25][64] 
