// Auto-generated from quantized weights model
// See end of map declaration to find max map size
const static int biasPW[][] = {

/* idx: 1, shape: (32,) */
    { 2136, -235, -2453,  0, 1596, 3391, -651, 2413, 1178, -1019, -1002, 218, 214, 1381,  0, 280, -382, 644, 1463, -2804, -68, -547, -1502, 1790, 239, 3224, -1632, 1286, 554, 1331,  5, -152},

/* idx: 2, shape: (8,) */
    { 4207, -1350, 3052, -2396, -1178, -616, -453, 1167},

/* idx: 3, shape: (32,) */
    { 904, 374, -481, -112, 709, -100, 378, -4, -393, 114, -848, 526, 812, 216,  0, 89, 290, -271, 311,  0, 1429, 45,  0,  0, -724, 71, -372, 103, 299,  0, -392,  0},

/* idx: 4, shape: (8,) */
    { -401, 1616,  1, 1541, 647, -481, -10, -69},

/* idx: 5, shape: (32,) */
    { -35, 432, -103, 1163, 523, 204, -610, -124, -2, -49, 1180, 248,  0,  0,  0, -675, 761, -88,  0, -25, -171, 19, -893, 224, -638,  0, 18,  0, 191, 44, 32, 230},

/* idx: 6, shape: (8,) */
    { -346, -872, 604, 1542, 370, 163, -35, -1031},

/* idx: 7, shape: (32,) */
    { -977, -1139, -1889,  0, 879, -665, -2512, 1640, -698, 1021, -453, 616, -71, -629,  0, -14, -38, 644,  0, 1846, -1198, 132,  0,  0, -1566, 1032, 1445, 1253, -1509, -302, 2751, 2486},

/* idx: 8, shape: (8,) */
    { 1168, 799, 195, 290, -1624, 831, 772, -625},

/* idx: 9, shape: (32,) */
    { -1606, -2333, -137, -3646, -1230, -2557, -77, -547, 4033, 4704, -1399, -72, 5168, 2958, 684, 1636, 1233, -4807, 373, -75, 5293, 2824, -877,  0, -3950, -877, 1878, 5448, -1321, -838, -729, -1030},

/* idx: 10, shape: (8,) */
    { -888, -3596, 4133, -1448, 1773, 1636, -2065, 2385},

/* idx: 11, shape: (64,) */
    { -5203, -282, -3928,  0, -551, 602, -34, -215, 882, 1977, 1619, -1472, -318, 534, 944, -866, 276, 1228, 3152, -745, -310, 3412,  0, -192,  0, -138,  0, -5, 1713, 844, 859, 891, 1786, -877, 2706, 684,  0, 774, -504, 2503, 1924, 3374,  0, 2161, 1152, -3213, 2857, 2893, -86, -1971, 554, 1268, 2255, 2476, -2521, 1656, -941, -277, -1483, 1071, 1126, 1117, -1154, -2296},

/* idx: 12, shape: (16,) */
    { 672, -344, -592, 4218, 2209, -229, 634, 1750, -339, -397, 1622, -504, 1842, -1020, 936, 1797},

/* idx: 13, shape: (64,) */
    { -1129, -640, 3295, 5697, -4672, -1469, -1806, -3939, 55, -23, 2582, -967, 11849, -9223, 2777, 4676, 1275, -4096, -1658, 3557, -2537, -7028, -957, -4480, 1379, 4672, -1733, -2691, -1404, 1695, 4504, -3199, -6721, -1919, 1260, -2153, 8299, 1559, 7229, 1253, -1595, 39, 3807, -2804, -2423, 6789, 1936, -1203, 8790, -1282, -816, 1998, -2716, -334, -6047, -1529, -1064, 1921, 7350, -1775, -7973, -6092, 3553, 5329},

/* idx: 14, shape: (16,) */
    { 5797, -446, 3647, 1282, -819, 1143, 6123, 1543, 1794, 1545, -1038, 1958, 2669, -738, -1104, 3640},

/* idx: 15, shape: (64,) */
    { 5477, 1657,  0,  0, 1886,  0,  0, -607, 646, -1,  0, 512, -573, 877, -3220, -285,  2, 1514, -923,  0, -1439,  0,  0,  0,  0, 1319, 1174, -196, -3651, 12, -1067, 434,  0,  0, -1261,  0,  0, 2634, -117, 2580, 527, 2902, 1963,  0, -259, 5203, 3721, 3253, -4271, -357, 4434, -578, 213, 370, -4948, 7626, 2834, -408, -1362, -716, 1114, 581,  0, -943},

/* idx: 16, shape: (16,) */
    {  0, 535, -2870, 391, -398, 1038, 2130, 827, 1696, -1536, 2086,  0,  0, -280, -1104, 1681},

/* idx: 17, shape: (64,) */
    {  0, -130, -414, 358, -859,  0, 206, -2309,  0, -18, 1421, -169, 438, 46,  0, -103, -858,  0,  0, 2936, -1151, 338,  0,  0,  0,  0,  0, 447, -166,  0,  0,  0, 740, 409, 299, 12,  0,  0, 241, -1202, -331, 199,  0,  0, -999,  0, -11,  0,  0, -2858, -311,  0, 466,  0,  0, -35, -2, -67,  0,  0,  0,  0, -2, -75},

/* idx: 18, shape: (16,) */
    { -864,  0, -838,  0, -38, -409, -1900,  0, 361, -813, -1741, -63, -255, 215, 17, 161},

/* idx: 19, shape: (64,) */
    { 81,  0, -75,  0, 373, 633, 482,  0, 427, -54,  0,  0,  0, 515, -74,  0,  0,  0, -130,  0, 156, -78, -22, -1252,  0, 483, 162,  0, -84, -46, 455,  0,  0,  0, -104,  0,  0, 217,  0,  0,  0, -2, 25, 1527, 36, 2465, -92, -999, -12,  0, 355, 427,  0, 143, -46,  0, 546, 542,  0,  0,  0,  0,  0, 193},

/* idx: 20, shape: (16,) */
    {  0, -992, -1096, -1875,  0, -740, 2042, -740, -841, -3752, -2270,  0, -1195, 1082,  0, 2289},

/* idx: 21, shape: (32,) */
    { -16, 78, -5, -473,  0, 345, 271, -534, 710, 17,  0, 86, 73, 57, -478, -21, 312,  0, 194, -406, 60, 49, -144,  0, 1034, 109, 109, -363,  0, 289, 375, 769},

/* idx: 22, shape: (8,) */
    { -1046, 212, -6167, 2108, -1032, -1344, 3083, -974},

/* idx: 23, shape: (32,) */
    { 2570, 3324, -953, -70, -1927, 297, -841,  0,  0,  0, 2055,  0, -1741,  0,  0,  0, 288, -71, -1010, -3028, -2461, 3016, -693,  0, 1770, -114, 814, 1079, -108,  0, -84, -290},

/* idx: 24, shape: (8,) */
    { 15806, 11336, 4651, 14381, 13888, 2996, 2694, 4848},

/* idx: 25, shape: (1,) */
    { -2443},
};
// [25][64] 
