// Auto-generated from quantized weights model
// See end of map declaration to find max map size
const static int biasPW[][] = {

/* idx: 1, shape: (32,) */
    { 1388, -1601, 2571, 1765, 1811, 903, 1826, 2024, 876, -2762, -4037, -2538, -248, -1154, 2901, -1454, -1655, 245, -2785, 527, 601, 1122, 1944, -1236, 1078, -675, -1318, 1077, 1639, 227, -1145, -2832},

/* idx: 2, shape: (8,) */
    { 735, 1032, 757, 332, -498, -731, 1840, 830},

/* idx: 3, shape: (32,) */
    { 969, 2345, 1118, 1143, 1251, -1281, -1813, 286, -380, 1951, -909, -610, 667, -1060, -2771, -1582, 1288, -1902, 2336, 836, 267, -1283, -2202, -521, 450, -1297, -1519, 879, -353, 375, -731, 274},

/* idx: 4, shape: (8,) */
    { 1031, 239, -346, 582, -1063, 468, 1263, 1374},

/* idx: 5, shape: (32,) */
    { -1277,  0, -467, 1541, 2534, -1297, 840, 727, 803, -362, -1, -1184, -268, -213, 1040, 392, 735, -329, 870, -345, -466, -394, 286, 2195, -930, -1660, -1503, -161, 381, -966, 750, 436},

/* idx: 6, shape: (8,) */
    { -574, 852, -133, 189, 102, -957, -21, 330},

/* idx: 7, shape: (32,) */
    { -1322, 349, -603, 611, -150, -169, -34, -1231, -779, 1176, 100, 1866, -286, -144, 1062, 887, -508, -134, -303, 1267, -680, -783, 1130, -536, -592, -740, -2, -554, -402, 779, 859, 343},

/* idx: 8, shape: (8,) */
    { 725, 526, -437, 1151, -1638, -536, 1864, 1965},

/* idx: 9, shape: (32,) */
    { -1787, 588, 1730, 1682, -6655, 5576, -2732, -8188, 9224, 1932, 5032, 5404, 4160, 2682, 2091, 1507, 5578, 3060, -1729, -3968, 4435, 4378, -2240, 133, -5455, -6703, 4512, 4303, -2401, -652, -1729, -3151},

/* idx: 10, shape: (8,) */
    { 3861, 2321, -2222, 1251, 2655, 685, 2378, 2263},

/* idx: 11, shape: (64,) */
    { -1216, -1194, -6427, 2622, 3536, 420, -4989, -5283, 3750, -2219, 7952, 3029, -7886, -3359, -261, 1276, -2099, 1282, -269, -2179, 3806, 2829, 1872, -6397, -679, 2391, 388, 1392, -1596, 3200, -4704, -7436, 2400, -6713, -1011, 3444, -3822, 6404, 1039, -2868, 235, 3944, -7931, 2046, 4572, -2030, -619, 4577, -519, 227, 1250, 4149, 134, 3716, 121, 8211, -2370, -7360, 1694, -1364, 1951, 774, -225, 130},

/* idx: 12, shape: (16,) */
    { -199, 688, -801, 2432, 2732, 3403, -980, 2369, 376, 5322, 197, 2662, 842, 726, 793, 3081},

/* idx: 13, shape: (64,) */
    { -923, -2558, 155, 2217, 1373, 527, -1107, 472, -63, 1785, -33, 137, 457, -353, 2025, 858, 1419, 1806, 650, 896, -821, 211, -1353, -2184, 1640, 864, -757, -216, 1436, -17, 1384, 2183, -1710, 1484, -831, -498, 282, -1090, 1538, 589, 517, -1018, -202, -858, 514, 3528, 800, -2039, 833, 1988, 858, 475, 869, 2366, 83, -117, 109, -426, -173, 793, -1080, -3324, 1952, -823},

/* idx: 14, shape: (16,) */
    { -1508, -858, 2370, -503, -807, 4491, -2124, 1544, -2581, 227, -454, -301, 1970, 4890, 1140, -2614},

/* idx: 15, shape: (64,) */
    { 1401, -190, 611, 32, 386, -90, 492, 1295, 490, 1078, 1307, 746, -548, 450,  0, 2011, 794, -56, 330, -328, 449, 771, -977, 1767, 148, 780, -393, 1180, -479,  0, -46, 421, -641, 1347, 719, 197, 403, 651, 1478, 64, -12, 381, 1961, 354, 1184, -120, 1292, 94, -342, -370, -99, 1590, -31, -454, -1553, 618, 537, 802, -1169, -642, 566, -1709, -268, 487},

/* idx: 16, shape: (16,) */
    { -2444, -1542, -342, 814, -1418, 261,  0, -94, 269, -371, 165, 692, -580, 1106, 36, -674},

/* idx: 17, shape: (64,) */
    { 575, -54, 64, 45, -75,  0, -317, 12,  0, 51,  0, -74, -8, 31,  0, -36, -844, -247,  0,  0, -1174, -2, -15,  0,  0,  0, 281,  0,  8, 753,  0, -250, -351, 62, 551, -8,  0, 192, 10,  0, -41, -19, 10, -83, -267,  0, 56,  0, -911, -977, 150, -41, -650,  0, -26,  9, 39, 29, -13, -290, 29,  0,  0, -51},

/* idx: 18, shape: (16,) */
    { -2, 486,  0,  0, -254, -413, 897, -579, -85, -632, 1038, -2, -120, -41, -81, -366},

/* idx: 19, shape: (64,) */
    {  0, -646, 82,  0, 149, -29, -401, 197, 796, -134,  0,  0,  0, 250, 223,  0, -489,  0, 249,  0,  0, 35, 130, -1125,  0,  0,  0, 250, -10, -108, 38,  0, -352, 166,  0,  0,  0,  0,  0, -518, -809,  0, -64,  0, -455,  0, 457, -5, 519,  0, 153, 224, 191, 56, 55, 160, -18, 101,  0, -119,  0, 32, -564, 96},

/* idx: 20, shape: (16,) */
    { 535,  0, 1231, 580,  0, -1014, 290,  0, 374, 40, 620, 136,  0, 253, 161, -332},

/* idx: 21, shape: (32,) */
    { 20, -67, -64,  0, -233, 504,  0, -153,  0, 43, -442, 182, 136, 373,  0, 64, 101, 189, 175, -172, 18, -37, 55,  0,  0, -275, -115, 17, -38, 61, -110, -409},

/* idx: 22, shape: (8,) */
    { 162, 238, -567, 317,  0, -80, 1348, 460},

/* idx: 23, shape: (32,) */
    { 59, 142, 128, -20, 185, 66, -131, 786,  0, -86, 70, -50, -82, -781,  0, -984, 29, 129, 35, -45, -838, 934, -56, -1, 485, -10, 21, 45, 66,  0, -82, -72},

/* idx: 24, shape: (8,) */
    { 927, 809, 70, 450, 964, 59, 46, 39},

/* idx: 25, shape: (1,) */
    { -782},
};
// [25][64] 
